#nInput,nHidden,nHiddenLayers,nOutput
16,100,1,26,
#input->hidden weights
0.073815520162225145561762928991811349987983703613281,-0.99315818109395626045454719132976606488227844238281,-0.20863726567194776362335062458441825583577156066895,-1.2837745664966198066991864834562875330448150634766,0.34276866089920182689709804435551632195711135864258,0.12596289522910822378243267394282156601548194885254,0.30247429582133539271993072361510712653398513793945,0.59567583262854573167288663171348161995410919189453,0.24894667923759669636574187734368024393916130065918,-2.0479264510141304000967465981375426054000854492188,1.7540585433002402471203140521538443863391876220703,-0.017707141474464883207362575490151357371360063552856,1.71523614094171961141910287551581859588623046875,1.6275890920273985429389540513511747121810913085938,-0.80040049287329995131301529909251257777214050292969,-0.3110117128524478857798385433852672576904296875,1.6882547935901119906532130698906257748603820800781,0.31980570259273327637927764044434297829866409301758,-0.12275791062347581050762101995132979936897754669189,-0.49167271714182353425925953160913195461034774780273,1.7182839046288471696044553027604706585407257080078,-0.46332898251414034174189282566658221185207366943359,0.086644369218868824700230391044897260144352912902832,-0.76672280670697867677176873257849365472793579101562,1.6261772027762695369546008805627934634685516357422,0.7418644611137690247915088548325002193450927734375,1.03258217818156339262714027427136898040771484375,0.1519888246713787249841942639250191859900951385498,-1.0016895483588126314344890488428063690662384033203,-0.28692171117758136222875009480048902332782745361328,-0.13808787415186665747945937710028374567627906799316,-0.012014843288073860649856072768670856021344661712646,-0.085588995187527702745988733568083262071013450622559,0.32351450170742074297081103395612444728612899780273,1.9076352743526125976814000750891864299774169921875,0.020567705820383436893239448295389593113213777542114,0.21804407100988543177777501114178448915481567382812,-0.81755083927337268701052153119235299527645111083984,0.69317628611248027770130875069298781454563140869141,-0.93402604883703010951734313493943773210048675537109,-3.355556593637885498537798412144184112548828125,3.1130927837080357711840861156815662980079650878906,-0.48072846215038911310557523393072187900543212890625,0.74623328476582939661199134206981398165225982666016,-2.689791844780074825393967330455780029296875,-0.082645442153049142319787279120646417140960693359375,1.4740343370434256797807393013499677181243896484375,-0.77173897201569874315651986762532033026218414306641,-0.27572981819991532193014904805750120431184768676758,0.42867673702732222995592792358365841209888458251953,-0.64548335038922588502430244261631742119789123535156,0.057542869364636255180567303568750503472983837127686,-0.085665935314710284220751645989366807043552398681641,0.51212149774468640472946390218567103147506713867188,2.6501507594317943450334951194236055016517639160156,0.76224442895446631318634445051429793238639831542969,-0.65022226027678320381397725213901139795780181884766,-0.92460883450860553711692091383156366646289825439453,-0.70155848089758898744605630781734362244606018066406,-1.7257133721024728867377007190953008830547332763672,-0.32487388087616275722524505908950231969356536865234,1.1472978673713418729107615945395082235336303710938,0.74705604540337311458841895728255622088909149169922,0.20023005235072360852299766520445700734853744506836,0.41781859058587134114759464864619076251983642578125,3.0947498485278961410926967801060527563095092773438,-0.044404614562991231996313956642552511766552925109863,-0.034310865004963352065114889910546480678021907806396,-1.3456805953535277975419148788205347955226898193359,-0.16983997674220291385083214663609396666288375854492,-2.0014220944591634143705505266552790999412536621094,0.022277327438240297763361041916141402907669544219971,1.0591336903149934922652164459577761590480804443359,-0.38366053804826422135576535765721928328275680541992,-0.0040549283630019290411428123377390875248238444328308,0.11233226306422997020639797938201809301972389221191,-0.72536618143369435696143909808597527444362640380859,-0.21415148955780216599720233716652728617191314697266,0.3499825196514141367742922739125788211822509765625,-0.51319856931934693111685419353307224810123443603516,0.92759873112838575615057834511389955878257751464844,1.0057360175032190596766668022610247135162353515625,-0.68274645725339100366113598283845931291580200195312,-1.6071630276053343600040079763857647776603698730469,-1.7707269397245135600371668260777369141578674316406,-0.015228446431946453948347297568943758960813283920288,1.9976812491256186188337551357108168303966522216797,3.3458501942693619213287092861719429492950439453125,0.59854895057739654351536273679812438786029815673828,-0.086695672788949587617146619322738843038678169250488,-0.1719318457928970533821200206148205325007438659668,-0.0043239236415566206783722691397997550666332244873047,-0.18334591528955124228872364255948923528194427490234,-0.09021343577863184803877771855695755220949649810791,-1.6807635395756364005137584172189235687255859375,0.82732004487407595494374845657148398458957672119141,-1.0236023480198266355500891222618520259857177734375,-0.89093758148806390106955177543568424880504608154297,-0.46620935777059602234118074193247593939304351806641,1.3343128486691904210914572104229591786861419677734,0.32194730468780574650367043432197533547878265380859,-0.37305793715450913383691045055456925183534622192383,0.37114655849119354558141026245721150189638137817383,-0.14673652649053711694016044475574744865298271179199,-0.49296758804458590264019335336342919617891311645508,-0.0086033017050348090104527898347441805526614189147949,-0.21536195631182888932109165125439176335930824279785,-0.34292771917985448437704576463147532194852828979492,-0.0016633318626591603490993964697963747312314808368683,-0.70546702420547691136931689470657147467136383056641,0.28522358081194160162041839612356852740049362182617,0.18184189763968802711069372435304103419184684753418,0.41722554522387889086587620113277807831764221191406,-0.27514132548943170952782111271517351269721984863281,-0.10586672245349514065448914834632887504994869232178,1.3130859794789013772486896414193324744701385498047,1.0867272799572216257502077496610581874847412109375,1.88180717263873020783648826181888580322265625,1.2326174146629413908016204004525206983089447021484,0.35599582679673930085684219193353783339262008666992,0.21510618106893195089490689042577287182211875915527,0.25200631569897286032855276971531566232442855834961,-0.21783858230540997791280233286670409142971038818359,0.1249380326956780334901608853215293493121862411499,0.14826974186517521969719268781773280352354049682617,0.035095914904522865218616800575546221807599067687988,0.99774200529636469791938679918530397117137908935547,-0.67303258335850579818782080110395327210426330566406,0.34737725447563977398957035802595783025026321411133,-0.97697448006589504565511106193298473954200744628906,0.41164697293676244527205199119634926319122314453125,0.00038683752988030826059501210423263728443998843431473,1.0508269771732081654391777192358858883380889892578,-0.83057440190498310617073229877860285341739654541016,0.29278222799131403686345720416284166276454925537109,0.2741994333027324981522099278663517907261848449707,-0.033950247003480892027393878151997341774404048919678,-0.95752650949017126258411281014559790492057800292969,-0.85391162069284920477230116375721991062164306640625,-0.14362708716483402193730967155715916305780410766602,-1.0183930789720190279723510684561915695667266845703,-0.1484806086556378912355569354986073449254035949707,-0.4249150879598548868898433283902704715728759765625,1.3482397573211581942587145022116601467132568359375,0.68200026761171106404191277761128731071949005126953,0.18105890633730442607074451188964303582906723022461,0.79277941421731490390101271259482018649578094482422,0.11826645342739071364857039725393406115472316741943,-1.8623280400379267351951284581446088850498199462891,-0.20746427914382289947603510427143191918730735778809,0.86513623477790380089658128781593404710292816162109,-0.67565596319291953975039177748840302228927612304688,-0.90210130965509183198491882649250328540802001953125,0.55449414441428579447546098890597932040691375732422,-0.37421848550679948086639114990248344838619232177734,0.78836098577345825599849149512010626494884490966797,-0.3236267945199344242546146688255248591303825378418,0.46095653294066951666252407449064776301383972167969,0.02344788514470313653403898968008434167131781578064,-0.50074869094496909927016758956597186625003814697266,0.00010561013954728374925496475755792857853521127253771,-1.0036951689742801274718431159271858632564544677734,1.1946389833665429502929100635810755193233489990234,0.18041915385776916003202074989530956372618675231934,1.6349019838786698066712688159896060824394226074219,-1.2447135231053334525341824701172299683094024658203,0.17633308727031807294771681426936993375420570373535,0.76554463364438818384627438717870973050594329833984,0.0176450948718694725081412855161033803597092628479,0.007312279414714117735385467966580108623020350933075,0.89789546380225693233967376727377995848655700683594,0.19784217866809344910095092018309514969587326049805,0.58921145719003908958200099732493981719017028808594,-0.27030495246349478533076649000577162951231002807617,0.15144946794847086168900318625674117356538772583008,0.13702557640728660337536837232619291171431541442871,0.79136636536729443314186482894001528620719909667969,-0.042847239480319113114070717074355343356728553771973,-0.39103662705265046506397652592568192631006240844727,-0.4276522588498100074794194824789883568882942199707,1.2599463550817564527761760473367758095264434814453,0.83086020543700600526904054277110844850540161132812,0.064771694611938102070780587382614612579345703125,0.36889542686979792662782529077958315610885620117188,-0.50594876099157370941128419872256927192211151123047,1.3625532658519592388302044128067791461944580078125,0.18713587612234669488309179996576858684420585632324,-0.035565150146059439084655906526677426882088184356689,0.89434262329061320340173324439092539250850677490234,0.73645318045407270890478912406251765787601470947266,-0.13741364399874006485546829026134219020605087280273,-0.011535483957320227452192362704863626277074217796326,-0.25629426472379601698037276946706697344779968261719,-0.32841240211150340977397377173474524170160293579102,0.29618318504792473522257978402194567024707794189453,1.5872377521538358902120080529130063951015472412109,-0.27908720497355993250820915818621870130300521850586,0.25809447739080165762359797554381657391786575317383,0.46366044555777580216116007250093389302492141723633,1.1452616216363176171455506846541538834571838378906,-0.1576308238390559668395951575803337618708610534668,-0.34079203353786385877199904825829435139894485473633,-0.92383991019313860260098181242938153445720672607422,2.6592010873979505802822131954599171876907348632812,-0.91798100191061682284754397187498398125171661376953,0.28364020670944667390500626424909569323062896728516,-2.4606972054417828310590721230255439877510070800781,-1.0294358359939455027642907225526869297027587890625,0.26636317274705051394434462963545229285955429077148,0.93673893531503926723758013395126909017562866210938,-1.4181276791229753264644841692643240094184875488281,0.20493384543570225542197249524178914725780487060547,-0.46810542696221496550279539405892137438058853149414,-0.753053525712065408015405409969389438629150390625,-1.1752542530401077769397488737013190984725952148438,-2.0864779923260550198449436720693483948707580566406,-2.7355817943327300767464294040109962224960327148438,-0.49507930527981069968035399142536334693431854248047,1.2293276846664076273896171187516301870346069335938,0.66530060343637031916586010993341915309429168701172,-0.76261173802738202454065685742534697055816650390625,-0.89476886128539634412959458131808787584304809570312,0.45954439242771261131537130495416931807994842529297,0.82552150097089327385191381836193613708019256591797,-0.3190776212988851168184112339076818898320198059082,-1.687253792086149672968531376682221889495849609375,0.70526544305097016440697643702151253819465637207031,-0.26739758221790116410332416307937819510698318481445,-1.1641961494688459755053600019891746342182159423828,-0.86699600208445481985819469628040678799152374267578,-0.065679477798366747709479795958031900227069854736328,-1.3023621044852324857288294879253953695297241210938,1.7485687904669007242119960210402496159076690673828,-0.1109289644201069680029547726007876917719841003418,-1.877972556603282328069326467812061309814453125,-0.039163425009542653099092746060705394484102725982666,0.27155713209767962101892635473632253706455230712891,0.64087430053241900562710497979423962533473968505859,-1.0739540913570650992880928242811933159828186035156,1.1785231351308977920666620775591582059860229492188,1.222926566657374536362112849019467830657958984375,-1.9177382688852293579628849329310469329357147216797,0.17153453159496623303681417382904328405857086181641,-0.84584974397145695768074347142828628420829772949219,2.1612300628972613836253913177642971277236938476562,0.060256273724896246279936207201899378560483455657959,-0.45919922981436755993200904413242824375629425048828,0.21494955230298587456339021173334913328289985656738,-0.63207846052962091132343402932747267186641693115234,-1.1789064691680184449040780236828140914440155029297,1.1048252371750888478629804012598469853401184082031,2.5552814544940862795385783101664856076240539550781,-0.16317652425185841247312623636389616876840591430664,0.43437146976625490291112896557024214416742324829102,1.3547276493197015767577795486431568861007690429688,-0.50254409529721910665500672621419653296470642089844,-1.8696208071804962802531235865899361670017242431641,0.43152114610362057867121166054857894778251647949219,-1.0770078604796364807327790913404896855354309082031,-0.53447457809621556901191752331214956939220428466797,-0.39950063198571800215930238664441276341676712036133,1.0893146294838120802239700424252077937126159667969,-0.54223284210741706790059879494947381317615509033203,0.20612094123962063085819806929066544398665428161621,0.42506468665369062653880405378004070371389389038086,-0.62116120060918467160604450327809900045394897460938,0.14624894618684286529131099996448028832674026489258,-2.1333421809743851049745444470318034291267395019531,0.44781600231822815683102589900954626500606536865234,-0.31467528531206168107559051350108347833156585693359,0.11772903617563508504861857772993971593677997589111,0.03936732524819488293621461139082384761422872543335,-1.5078760248634797136446650256402790546417236328125,0.29286407916749401803002683664090000092983245849609,0.069193509455148530240542470437503652647137641906738,-0.004184168090474910811638054042305157054215669631958,-0.53125548034565739374812665118952281773090362548828,0.72463577939459811183553483715513721108436584472656,0.48190188239496511979353954302496276795864105224609,0.049463908046702448340070645826926920562982559204102,0.69728502918628854079230450224713422358036041259766,0.15298706573040710132715958025073632597923278808594,-0.70958737179736675049213090460398234426975250244141,2.0715721947174503547728363628266379237174987792969,0.1444221028825303787535005994868697598576545715332,-0.19546257628305502285215311530919279903173446655273,-3.2674173819471143964676684845471754670143127441406,0.11503433792961767490048430317983729764819145202637,-0.899628192534208892539027146995067596435546875,-1.0187469940816074043254957359749823808670043945312,1.0398367354705095877420717442873865365982055664062,-0.067074798166289889556068715137371327728033065795898,0.9386573987264199558921973221004009246826171875,-1.0818850925218339575906156824203208088874816894531,2.1419400479546406579345330101205036044120788574219,-0.10551678882433337958168806380854221060872077941895,0.49153278916431181189139465459447819739580154418945,0.46886135973379666763705131415918003767728805541992,1.3622862343863684220224286036682315170764923095703,-1.0630928524671519053157453527092002332210540771484,0.13434333945602838777944043613388203084468841552734,-1.3972681171029150970497312300722114741802215576172,-2.4640801122425730618203942867694422602653503417969,-0.48369990558254055690312611659464891999959945678711,1.3493983026059748198122179019264876842498779296875,0.324850891215181292182023753412067890167236328125,0.56805717663813470874600852766889147460460662841797,1.9138816055903025148410279143718071281909942626953,0.04420311856651057413891692249308107420802116394043,1.0646382925508668382263977036927826702594757080078,-0.58160574821129795708429810474626719951629638671875,0.003376287665058708142851173761300742626190185546875,-0.29988486140615799868669455463532358407974243164062,1.9738567571285439150585716561181470751762390136719,1.1105475385866978577098507230402901768684387207031,-0.45037440791302091325221113038423936814069747924805,-2.0118901258459369607578537397785112261772155761719,-2.6919273550819231566322287108050659298896789550781,-1.2033213151430142140441148512763902544975280761719,0.48524451882382879652766405342845246195793151855469,-0.36221448074475376399661286086484324187040328979492,-1.2837261369168706526266987566486932337284088134766,0.63438158476208728053791219281265512108802795410156,1.1624774221351779068811538309091702103614807128906,0.38328392457683224670006438827840611338615417480469,1.0969069460590492592899636292713694274425506591797,-0.98010834017312775667818414149223826825618743896484,1.28900169106417905595662887208163738250732421875,-2.5032538223035976088226561842020601034164428710938,1.9136240161961519667954689793987199664115905761719,-2.0050230216874260769088778033619746565818786621094,0.53305851271112481004621486135874874889850616455078,-0.50445511470898218853164962638402357697486877441406,1.1104365674307761224781643250025808811187744140625,1.6243456250219641123777591928956098854541778564453,0.015602352537018646452815495706545334542170166969299,0.16371333905457130519778274901909753680229187011719,1.6875470693234007057981216348707675933837890625,1.0581820333655183041798863996518775820732116699219,0.70733097111409859447661574449739418923854827880859,1.8562915451424897295140681308112107217311859130859,-0.047390473672389098191981560148633434437215328216553,0.66662493979711745506477882372564636170864105224609,-2.2319463852577903217877519637113437056541442871094,-0.413042796447580684571221354417502880096435546875,0.087052814278977597162167967326240614056587219238281,-0.10878775575090762761654161749902414157986640930176,0.27044466103787379029910198369179852306842803955078,2.2046639874650555412927133147604763507843017578125,-0.17500535585960441675723586740787141025066375732422,-1.7983100081667511283001203992171213030815124511719,0.96696946037672437679333370397216640412807464599609,-0.57358181421321008386371431697625666856765747070312,-0.72588736594331604301544302870752289891242980957031,1.0434903517652889259892390327877365052700042724609,1.0472846647112674656199260425637476146221160888672,0.18916570041250674316657409690378699451684951782227,-0.54571848408515388761941267148358747363090515136719,-0.15017879284633708913965222109254682436585426330566,1.2010398069684264932277528714621439576148986816406,-0.51647017161137709351237390364985913038253784179688,1.7691262667503921957035117884515784680843353271484,-1.7904219113486856684858139487914741039276123046875,-0.049228441300580329242908561582225956954061985015869,-0.041344960719411009975043924669080297462642192840576,0.94648052168059237931885263606091029942035675048828,0.18966533611704827766430980773293413221836090087891,0.49350356028830960619657730603648815304040908813477,-2.2598695050524399974278821900952607393264770507812,0.44577752104905943308921223433571867644786834716797,-0.80738696872771875678864716974203474819660186767578,0.17063885950557639015201516485831234604120254516602,0.25379294545583480635642104061844293028116226196289,-1.1565966203808941692443568172166123986244201660156,-0.082877265704008384883394455755478702485561370849609,0.1311466724858412757903636247647227719426155090332,-0.65165915704649590711738937898189760744571685791016,0.1787759477472224689531543617704301141202449798584,-0.25490457019033485597248045451124198734760284423828,0.94444198333139572909544767753686755895614624023438,-1.3320278617967293843804554853704757988452911376953,-1.2365057461583195408394431069609709084033966064453,0.33166457374889607434553795428655575960874557495117,-1.1314454555192707818633834904176183044910430908203,1.1441786913726519347989096786477603018283843994141,0.009041923689835140720560957561247050762176513671875,1.3580560305530895437442495676805265247821807861328,-1.0237277250174348086630971010890789330005645751953,0.90528566165089585648928505179355852305889129638672,-1.6267479683515615462852110795211046934127807617188,0.65032295632912995309027337498264387249946594238281,0.28042433398287375245772068410587962716817855834961,-0.72329336795180176888919731936766766011714935302734,0.55810560424220756470248261393862776458263397216797,-0.37760933954282077662512051574594806879758834838867,-0.34814076356018575086892496983637101948261260986328,-0.077528292479858332275632903929363237693905830383301,-0.15477558748720673942322889615752501413226127624512,-1.5868482686669433956438979294034652411937713623047,0.33389860940700927249835672228073235601186752319336,0.196791724038849480393764679320156574249267578125,3.3447768158695638796018556604394689202308654785156,2.4745007143839377050653638434596359729766845703125,-0.55982721937021195923733785093645565211772918701172,-0.60618235885888871461446569810505025088787078857422,0.15147047755866419049830540188850136473774909973145,2.1415292384207478271207492070971056818962097167969,-1.3595717366327639830103635176783427596092224121094,-0.011131860625967633995903049992648448096588253974915,0.81304545178128284632634859008248895406723022460938,0.67357398904074960999110999182448722422122955322266,-0.18954705974698352055618499889533268287777900695801,-1.0942042969715568556665630239876918494701385498047,-3.8105789201945641231361605605343356728553771972656,-1.4046487589920297889278799630119465291500091552734,0.26001186461365793922695388573629315942525863647461,1.5582695598434423978062568494351580739021301269531,0.42514049910482237804032479289162438362836837768555,-1.0981419569423254145590362895745784044265747070312,-0.022260232460218330047263535220736230257898569107056,-0.33357904876032573593391816757502965629100799560547,0.773278373442582989127913606353104114532470703125,0.28259820413767655633563435912947170436382293701172,-1.090373056085663705516708432696759700775146484375,-1.7977226430220953901084612880367785692214965820312,-1.2232439481051498031405344590893946588039398193359,-1.8075880391209302455735041803563944995403289794922,-0.50373753868503134967227197194006294012069702148438,4.0206349516250705633524376025889068841934204101562,0.73056669675986218859264909042394720017910003662109,1.2224816951383867813518691036733798682689666748047,2.4799032944671912659373447240795940160751342773438,-1.2417445215823907922469970799284055829048156738281,-0.85459153294323930705189695800072513520717620849609,-2.1502022525314803402807228849269449710845947265625,0.079997920878239772712881006100360536947846412658691,-0.032179910332260502903167775912152137607336044311523,-0.3848881336407234954322120756842195987701416015625,0.69916954696842270600143365300027653574943542480469,-0.088606782157534827448763792290264973416924476623535,0.86302716062930862062074766072328202426433563232422,-1.7111206508716945151604704733472317457199096679688,0.59775811247985244367697532652528025209903717041016,1.68158837670181782186773489229381084442138671875,-0.43977998043254684645830820954870432615280151367188,0.016609453749948412115688967105597839690744876861572,-1.2790966029045076624015564448200166225433349609375,0.55282157264727938006387830682797357439994812011719,0.11977509548173449760444242429002770222723484039307,1.82267835561015800749373738653957843780517578125,0.33965754623771848841329301649238914251327514648438,-1.9326608887319820517802781978389248251914978027344,0.073045177367033448101452108858211431652307510375977,-0.89099764871919295838864627512521110475063323974609,-3.1244481045313503564386792277218773961067199707031,-1.1044307233165684412057316876598633825778961181641,2.1936067554672358248524233204079791903495788574219,-0.049873334503661805039431698105545365251600742340088,0.63386403535580626567025319673120975494384765625,1.1207997390678743343528367404360324144363403320312,2.0902361849669306437249360897112637758255004882812,-2.1024725885250807877469014783855527639389038085938,0.51958126277672600501489341695560142397880554199219,-0.00099694414389699223706664543698252600734122097492218,-2.4952592260739678842185185203561559319496154785156,-1.1209514990142657175908880162751302123069763183594,0.085432187380229882012194764229207066819071769714355,0.1230830602589238070843080663507862482219934463501,3.0728667965452332033748916728654876351356506347656,-0.10803873503146571577460122171032708138227462768555,0.67124633462926186489028168580261990427970886230469,-0.057140907195167948973146820890178787522017955780029,-0.90401309569143639688348912386572919785976409912109,0.66040819433390407500183982847374863922595977783203,0.22186530138287324787071952414407860487699508666992,0.20782407910456221489248207490163622424006462097168,-0.28167648997605476690608838907792232930660247802734,-1.3444340463865442902857694207341410219669342041016,-0.067312700894394297823630779475934104993939399719238,0.15496301665405201597458528794959420338273048400879,-2.5382576533213216940509937558090314269065856933594,-1.0251093460996090200865182850975543260574340820312,0.2567347486267898548639720956998644396662712097168,-0.36655400916338992667320439977629575878381729125977,0.44101337956941144557987399821286089718341827392578,0.84199943777696673041788244518102146685123443603516,-1.0367149136530753317231301480205729603767395019531,-1.6986040812744866990158243424957618117332458496094,0.48182415723747401559151626315724570304155349731445,0.90429469453703725800863821859820745885372161865234,-1.9195892257992737128802218649070709943771362304688,0.032707871069935320895716301947686588391661643981934,0.24906367710114035718405034458555746823549270629883,1.8502255670114258201408574677770957350730895996094,-0.0046154648251198540642725731686368817463517189025879,-0.29796377634140180923338903085095807909965515136719,0.62760920243036955046278535519377328455448150634766,0.30600944124108392374594700413581449538469314575195,0.12127421850080681575700936036810162477195262908936,-3.4358615552477975718659308768110349774360656738281,0.27635301921507421374357704735302831977605819702148,0.85680368404099838119947207815130241215229034423828,-0.46565995446651969880136334722919855266809463500977,0.58498484928249738779015842737862840294837951660156,-1.2981140159706443526488328643608838319778442382812,-0.11683601052556409627403155582214822061359882354736,1.5160127569946542092083063835161738097667694091797,-0.48749648416594476563190596607455518096685409545898,0.11527678358838634731231564956033253110945224761963,3.6317955569091533440939656429691240191459655761719,4.0091726033933552386656629096250981092453002929688,0.24343105787401536632685861150093842297792434692383,-1.8012282451417716000463542513898573815822601318359,1.1855526417881585565794466674560680985450744628906,1.9167020900392719440219480020459741353988647460938,0.79289907228110023673650630371412262320518493652344,-2.0376162942285054313629188982304185628890991210938,1.3687721919078457144536287160008214414119720458984,0.65034598924657038843122336402302607893943786621094,1.3758998247592686414719764798064716160297393798828,0.92798155759892020366663700770004652440547943115234,-1.0468807266855850723885623665410093963146209716797,-0.036716432201277009184092747773320297710597515106201,-1.1423126335453455126867083890829235315322875976562,1.9090010367031953197880511652329005300998687744141,-0.87660457647693468263838667553500272333621978759766,-1.1349793863088140088990485310205258429050445556641,-2.1607633119251343778444152121664956212043762207031,0.47797100617384313814284269028576090931892395019531,1.0007920476115022001550869390484876930713653564453,-2.3093921855749970362126077816355973482131958007812,0.82885732105672138558816186559852212667465209960938,1.0501224401599906776993975654477253556251525878906,-2.215811777588388764570481725968420505523681640625,1.5265445118172260574596066362573765218257904052734,0.11445912671643233837759368043407448567450046539307,0.1716255291549473038781314926382037810981273651123,0.043427413433940548204148512922984082251787185668945,-0.14261991360759940228319919697241857647895812988281,0.20110454710081762663698157211911166086792945861816,0.72324717897934887034239181957673281431198120117188,0.46189960598590013018949207435071002691984176635742,2.4136360070165903124461692641489207744598388671875,-0.57562672550162408136031899630324915051460266113281,-0.2598277764471330075757293798233149573206901550293,0.18201186378577116631305443661403842270374298095703,1.0459428115455429164626366400625556707382202148438,2.162518276428880170669799554161727428436279296875,-1.3283917628686656708936197901493869721889495849609,-0.75067915891245007298238078874419443309307098388672,-2.6261666029687851242613305657869204878807067871094,0.50803221701351086725395589382969774305820465087891,0.69690149595417760775006854601087979972362518310547,-1.5358367248901583224096611957065761089324951171875,-0.11963125512860080246202443277070415206253528594971,1.6931849745676526008963946878793649375438690185547,-0.35783612077330773093564175724168308079242706298828,-0.11027456602795676632311483444937039166688919067383,0.72132832522679801723342052355292253196239471435547,-2.08663154287825136634637601673603057861328125,-0.26775220859363402237107720793574117124080657958984,-0.2532727245764860302124077406915603205561637878418,1.1365375818914278394089478751993738114833831787109,-0.094677052218792703830452239799342351034283638000488,-0.15651278166897744648089485508535290136933326721191,-2.5624001422346491807502388837747275829315185546875,0.20228338265160933362452055916946846991777420043945,1.5274590632131890277634056474198587238788604736328,0.35890842160228247914588450839801225811243057250977,0.60805803478153419572294069439521990716457366943359,0.38355386419155335087083358303061686456203460693359,0.25634135566410870543663236276188399642705917358398,-1.0292380506701244158307417819742113351821899414062,-1.0768213380463638184636465666699223220348358154297,0.2304726062487183757543363071818021126091480255127,0.16751994309631915158753656669432530179619789123535,0.21077005321319280950476127145520877093076705932617,0.83868532437372211862935955650755204260349273681641,-0.90431993837788615664408098382409662008285522460938,0.15935352102368860460757105101947672665119171142578,0.22234933460324821097309211381798377260565757751465,-1.9349464524232948825499533995753154158592224121094,0.1706707604389642030096041480646817944943904876709,0.89757770436255901458366679435130208730697631835938,0.7560481896924731159970178850926458835601806640625,0.12442350292251262711129555782463285140693187713623,0.73767371847385576622002645308384671807289123535156,0.84553986173240169854636860691243782639503479003906,1.6073479118877160853884333846508525311946868896484,-0.37177371844387335775294900486187543720006942749023,0.011252264465532700599137427843743353150784969329834,0.23444777271476577307218747137085301801562309265137,-1.6536914041610797365677854031673632562160491943359,-0.57518358344690789785147444490576162934303283691406,1.5022693481451439012630544311832636594772338867188,-0.082181115315791891662300372445315588265657424926758,0.1142702008259662976863424432849569711834192276001,-1.9547679846061418729163960961159318685531616210938,-0.21367454774535354911080275996937416493892669677734,0.47793543804109084316422695337678305804729461669922,0.0037637370812766122486758835208320306264795362949371,1.257412256194317734525611740536987781524658203125,-0.75167353352180010794825193443102762103080749511719,-0.52769505653831916269780322181759402155876159667969,-2.6555717480320732981624587409896776080131530761719,0.296018432653038843227477627806365489959716796875,0.40373226948023599458537091777543537318706512451172,0.046073561224818933290681144399059121496975421905518,0.072237486760080182879306676113628782331943511962891,-1.3926808816547517899664399010362103581428527832031,0.92779423955688222758197980510885827243328094482422,0.0368766699363981750869889708610571688041090965271,-1.1500090040307855421275462504127062857151031494141,0.16538768993488167646788156162074301391839981079102,1.0884248482429785820357892589527182281017303466797,1.6115940138703530593033974582795053720474243164062,-0.25774191453459194267594511984498240053653717041016,0.59215566677307918119765872688731178641319274902344,-0.23248199828390905818942258065362693741917610168457,-0.81095465098890140431819872901542112231254577636719,0.80526541271362839236047648228122852742671966552734,-3.1901484405643003583463723771274089813232421875,1.3751866329327397941995059227338060736656188964844,2.0038830338818365284225819777930155396461486816406,-1.0138918515087618210657183226430788636207580566406,-0.3749475978639811302173256990499794483184814453125,-0.37184961043102671141014070599339902400970458984375,1.1643343348510102330806148529518395662307739257812,-1.7593206439599002877116618037689477205276489257812,-1.5317174757380189742406173536437563598155975341797,0.68248342168213915748253839410608634352684020996094,0.064660439567176902775358371400216128677129745483398,0.92056837641569966290688853405299596488475799560547,1.8085166244125565615519235507235862314701080322266,0.19680890268219045080577700446156086400151252746582,0.061955940336546375113435658477101242169737815856934,0.22021310739750490914623526350624160841107368469238,0.59976197383498497384124448217335157096385955810547,-0.021419870225373123517886853051095386035740375518799,2.0508900502055200654183408914832398295402526855469,-0.32740472198152958949179947012453339993953704833984,-1.4237602224237380088567306302138604223728179931641,0.80213138734823341557955700409365817904472351074219,0.25226301742402346128812951064901426434516906738281,-0.4008469282932534127894541597925126552581787109375,0.2840976026891325889600636855902848765254020690918,-0.042730071208434354523841847139919991604983806610107,-0.72814106246197796146191194566199555993080139160156,0.45013317173619005195916997763561084866523742675781,-2.4853695637863664202882318932097405195236206054688,1.5716940188036991887798876632587052881717681884766,2.40374328558778671549589489586651325225830078125,0.034961200936580068276970933993652579374611377716064,0.01021893082119981928379548463681203429587185382843,-0.51184572466948885516302425457979552447795867919922,-0.23840482702399962144923506457416806370019912719727,1.4701794609827874005247849709121510386466979980469,1.0046612551741469498978176488890312612056732177734,0.15051543024369506973414445383241400122642517089844,0.76606857031262476365185420945635996758937835693359,-0.02405681482363186338147009735166648169979453086853,-0.56846189338523234191313804331002756953239440917969,-0.86660217569207997900804230084759183228015899658203,0.15465742929908360414614776345842983573675155639648,-1.9542763040593438272907178543391637504100799560547,-0.13949370537218125365441778740205336362123489379883,-0.044885231921701115864742348549043526872992515563965,-0.92181970919150990617652041692053899168968200683594,1.8523992220712306444596606525010429322719573974609,0.81885955018519274162258625437971204519271850585938,-2.3086291124977305067034194507868960499763488769531,0.27404092177376287997603299118054565042257308959961,-1.6741704257785932075108803473995067179203033447266,-2.4380025735307340184476743161212652921676635742188,-0.0085609002014596664170698048224039666820317506790161,0.071601300246035490260076983304315945133566856384277,2.2022686566355762494140435592271387577056884765625,0.95030593908557836613226754707284271717071533203125,-0.42152895065267026453170728927943855524063110351562,-0.22840535340830489530183911028871079906821250915527,-1.1087867599776652927090481171035207808017730712891,-0.32912136773136524414695713858236558735370635986328,-0.98728139010846338585736248205648735165596008300781,2.1060831233893364533571457286598160862922668457031,-1.0984990081384979898615483762114308774471282958984,0.50006808100972843789122634916566312313079833984375,-0.85715083463753161119313972449162974953651428222656,0.038480184231787770143817795087670674547553062438965,-1.6983182549637514391349668585462495684623718261719,0.18789395939697461912487597146537154912948608398438,0.55141621714209376747817259456496685743331909179688,0.1799086347133538599241120437000063247978687286377,0.99754545079065615187374760353122837841510772705078,-1.2663613718987538625526667601661756634712219238281,-0.95209087175256912338738857215503230690956115722656,0.47838752883914115177077519547310657799243927001953,-0.26714036636886451248074081377126276493072509765625,-0.11333707617349390861516411632692324928939342498779,0.82646357499555289649606493185274302959442138671875,-0.47328125977566926074757702735951170325279235839844,-0.042348575328263637906900385132757946848869323730469,0.88168109633796620805412658228306099772453308105469,1.1614083328097022373981417331378906965255737304688,0.40935638214236202969686928554438054561614990234375,-3.0781113215400086602357987430877983570098876953125,-0.11312084592273284611163575164027861319482326507568,-0.40670634214032069797539747924020048230886459350586,1.0551084689620848777735773182939738035202026367188,-0.047261905343547905289369737147353589534759521484375,0.696168466206291469688949291594326496124267578125,0.76969018723363635814394001499749720096588134765625,-0.029543290852980529787030761212918150704354047775269,-2.3927037612542076949750935455085709691047668457031,-0.15052481834420025630372208524931920692324638366699,2.29994692256969557320189778693020343780517578125,-2.3826921519186892162167623610002920031547546386719,0.60328799823817780279000544396694749593734741210938,1.7350596029215612503548982203938066959381103515625,-1.2921245836427226461040618232800625264644622802734,-2.6610929726241985271428802661830559372901916503906,-0.68755019791001770190774777802289463579654693603516,1.0197111711813042767005299538141116499900817871094,1.0239219854193539749331876009819097816944122314453,1.1544332361263278663443543337052688002586364746094,-0.59711898439580946007509965056669898331165313720703,1.4851727405161099238029009939054958522319793701172,0.36386513114630314458253224074724130332469940185547,-1.8907472545814698605681769549846649169921875,2.2613822420767761833815256977686658501625061035156,-1.619975219738506666544708423316478729248046875,2.0523370225184573989452019304735586047172546386719,0.63691837994839806125213499399251304566860198974609,-1.8602858283067871258964487424236722290515899658203,-3.1125898795317317180320060288067907094955444335938,-1.7481791442714711415362671687034890055656433105469,0.13515642665971355773635309560631867498159408569336,-0.15150086964793141319773894792888313531875610351562,1.1781551914117480706067908613476902246475219726562,1.6681606192588129822240716748638078570365905761719,-1.0420801141779083565097607788629829883575439453125,-0.18409902178286025042908136128971818834543228149414,0.49483115652340969869982245654682628810405731201172,-1.6080654439829085156077326246304437518119812011719,-0.48642586866724768501768494388670660555362701416016,-2.1467571202922726136819164821645244956016540527344,0.086396427220353427811616597864485811442136764526367,0.75843778366834757598269334266660735011100769042969,-0.20466949522163432884092060248804045841097831726074,2.7336147078651467090537607873557135462760925292969,-1.3950277952800949066158864297904074192047119140625,2.4458801625300958804132278601173311471939086914062,-1.7470367881570332269092205024207942187786102294922,0.20545524599350573069500569545198231935501098632812,1.7812862233549047186187408442492596805095672607422,-1.5693241435917522075271790527040138840675354003906,-2.2471285596011663088233945018146187067031860351562,-0.1470108782305576677895686543706688098609447479248,-4.1127188669420666755627280508633702993392944335938,1.151899214186489217581765842624008655548095703125,2.2217739954138360225499582156771793961524963378906,2.1715402105131533794235565437702462077140808105469,2.6767756057006795167296786530641838908195495605469,1.0444805465705757629990557688870467245578765869141,0.2493636851348465799382836394215701147913932800293,1.6377451575763382063399831167771480977535247802734,2.0879880324529320745341465226374566555023193359375,0.12357009908229391048628542648657457903027534484863,-3.4412988729879541160983080771984532475471496582031,-1.4743302630303798395061676274053752422332763671875,-0.4480507407522836271773769567516865208745002746582,1.9876109815178335527008357530576176941394805908203,-0.22134812568197964610661188089579809457063674926758,-0.43488371718959417666638955779490061104297637939453,0.17542926711632955694142310676397755742073059082031,-0.10790764565842179967258829265119857154786586761475,0.025293532384050559230770360841233923565596342086792,-3.5493100417208562902260382543317973613739013671875,1.5997130614910461954281117868958972394466400146484,-1.0232243093529540534092348025296814739704132080078,-0.30908205811641076277140882666571997106075286865234,-1.0870612294384576212991078136838041245937347412109,0.34675035226964789902837082991027273237705230712891,1.1188936148373740397943265634239651262760162353516,-0.12983801487225288262550293438835069537162780761719,-2.9157280253222741528418282541679218411445617675781,-0.24262629483785169703935480356449261307716369628906,-0.24421738208056398278245069377589970827102661132812,-1.6655468603467751265156948647927492856979370117188,-1.5926281979516756504011709694168530404567718505859,1.9077565985199096409985486388904973864555358886719,-2.9525188767163808023497040267102420330047607421875,0.14913595545025359889734772878000512719154357910156,-2.1764288929538548877928860747488215565681457519531,-1.3832353951974571959482318561640568077564239501953,1.7259365119985103920186020332039333879947662353516,0.51941941789942025486936927336500957608222961425781,2.0630552097423593416181120119290426373481750488281,2.1885408488716469044277346256421878933906555175781,0.94786590341603893516975176680716685950756072998047,0.76212560549720853586563862336333841085433959960938,0.13927286325137180900135547290119575336575508117676,-2.764751597646732506063926848582923412322998046875,-0.29598671600255288538505737960804253816604614257812,-2.9849375128855331062993627710966393351554870605469,1.6173238660099633623445924968109466135501861572266,-0.056512136422406863967005108406738145276904106140137,-0.97416599207774356994349318483727984130382537841797,-1.6645099643746679163314183824695646762847900390625,0.20819784674997507400995289117417996749281883239746,-0.43892604638835391872575542038248386234045028686523,-1.9625665028743963791413307262700982391834259033203,0.11346908132635065424853593185616773553192615509033,-0.32283567346078079207671862604911439120769500732422,-1.6857987481408409635719181096646934747695922851562,2.2403023479357182523585834132973104715347290039062,2.9771136567143572371207937976578250527381896972656,1.9376048446057796414976337473490275442600250244141,-1.13746398750338784111590939573943614959716796875,-1.0391039946168072471976984161301515996456146240234,0.62898477580626166449917491263477131724357604980469,-0.23434841023725716535608398771728388965129852294922,2.4940105681359501232918773894198238849639892578125,0.74715696682303545106407227649469859898090362548828,1.4291830235671363347194073867285624146461486816406,-0.98231093569246374919146091997390612959861755371094,1.4238883345350836773235414511873386800289154052734,-2.8706653974009426200098005210747942328453063964844,-0.88482699067693526551181548711610957980155944824219,0.52848415136238580114280694033368490636348724365234,0.45550497346459467573609458668215665966272354125977,1.804023848376939298532306565903127193450927734375,-0.081496851835662187379938359299558214843273162841797,-2.5984122149998811757143357681343331933021545410156,1.1121380875660946685457020066678524017333984375,-2.8326210237305873285151847085217013955116271972656,0.21158134626604821471040906999405706301331520080566,0.12779185653302971292788470236700959503650665283203,1.5649565155518752046504005193128250539302825927734,-2.0000902392673696184033360623288899660110473632812,-1.353504115316837896898505277931690216064453125,-0.76737835858479686024224974971730262041091918945312,1.0186984223546284855643762057297863066196441650391,1.1556062998840090916274903065641410648822784423828,-0.89099027526015861511154980689752846956253051757812,0.98469301194540947985700540812104009091854095458984,0.095134945947380242237123582071944838389754295349121,-1.0108413323293907737365771026816219091415405273438,-0.29154008405242926027511884967680089175701141357422,1.2933664348476598959791772358585149049758911132812,2.7770179386693820688947198505047708749771118164062,-0.33365237172673201104800000393879599869251251220703,-3.2162022115103527930557447689352557063102722167969,0.17888852649795772276064553807373158633708953857422,-0.73873256171874901454543760337401181459426879882812,-0.36730439518148727540136633251677267253398895263672,-3.9584761591463961671877314074663445353507995605469,0.80803582708961640967970652127405628561973571777344,1.2235980651778686212338698169332928955554962158203,3.6413899011871633248915713920723646879196166992188,-2.0385863001254960202857091644546017050743103027344,0.8610190028880406742928244057111442089080810546875,-3.4363676262289613028144685813458636403083801269531,3.5217996410787377747908521996578201651573181152344,0.22028445024100673510503156649065203964710235595703,0.97219225013078824915169207088183611631393432617188,1.5172347618531270008190858789021149277687072753906,-0.05757632663437732556399595296170446090400218963623,1.0987074311364031231619264872279018163681030273438,3.2209933867978381982766222790814936161041259765625,-2.0693303610171005502138541487511247396469116210938,3.0988140366044776286003070708829909563064575195312,0.0017564481099835837357714396489427599590271711349487,0.39407646077483282631703787046717479825019836425781,-0.2866092846087166523538769524748204275965690612793,-0.098306110566568460917835636792005971074104309082031,-0.091914365034372572105247911622427636757493019104004,0.83884650091073154065668404655298218131065368652344,-0.54374398635280229985511368795414455235004425048828,-0.46800376802837828638104156198096461594104766845703,0.5026792584026527066498601925559341907501220703125,0.63314745157573337763778908993117511272430419921875,-0.92411283988586201409987097576959058642387390136719,0.51553803002583198367148042962071485817432403564453,1.7317644272950805106603411331889219582080841064453,1.3833969438836133392101146455388516187667846679688,-0.81603931346512270650350728828925639390945434570312,2.0967226933054066151385086413938552141189575195312,0.098689399521339468690506180337251862511038780212402,-2.2074843595683981689603569975588470697402954101562,1.8172823079037010440828225910081528127193450927734,1.3813617800334421215069369281991384923458099365234,0.16762186216677762984339494778396328911185264587402,-1.296359637708501821862228098325431346893310546875,-0.26659896880484734715821559802861884236335754394531,0.30359975970126706901197621846222318708896636962891,-1.3237426531166613941081777738872915506362915039062,-1.8137056737707111242485780167044140398502349853516,-2.2128528924800110466719615942565724253654479980469,1.3001408356161401336237304349197074770927429199219,1.8490305535520357160805815510684624314308166503906,0.27751390427222988321886987250763922929763793945312,0.43179904754076142703311802506505046039819717407227,1.5585601575200815904764795050141401588916778564453,-1.1620102167221815214759317314019426703453063964844,-1.1147778924047624382609456006321124732494354248047,0.12877408501596276924061612589866854250431060791016,-0.013114430976009545590232896472571155754849314689636,0.30466497435306094665463660930981859564781188964844,0.14155214259254345066096902883145958185195922851562,-2.0642555104444202385138851241208612918853759765625,0.50916736884624580472546995224547572433948516845703,0.17572419706001823902496994378452654927968978881836,-1.4204922463430207368872970619122497737407684326172,0.044660253516932410522422003396059153601527214050293,-1.069852113487979039518904755823314189910888671875,-1.5029180632986198773437536146957427263259887695312,0.30570992369835342516992682249110657721757888793945,-1.1915919365738349977590360140311531722545623779297,0.64896513506664044168559257741435430943965911865234,2.8503220947264105156193636503303423523902893066406,0.15504624099600686215616462959587806835770606994629,0.59655193873841327878437823528656736016273498535156,-2.6452641017493090380696685315342620015144348144531,1.102319680498151655001493054442107677459716796875,0.38673282968267386205951652300427667796611785888672,1.6696085889873886198842001249431632459163665771484,3.1175825845832680904834433022188022732734680175781,0.74462710019621614065954418038018047809600830078125,1.4618399357452409592639241964207030832767486572266,0.65035795811896723872536085764295421540737152099609,0.20725738665945048211369794444181025028228759765625,0.10477209770865701654596335856695077382028102874756,0.12503772526397030628864115442411275580525398254395,-0.15982807321024125601915955030563054606318473815918,-0.40299756796831548433246439344657119363546371459961,0.18017534058025674870151533468742854893207550048828,0.046739384334342437554710159020032733678817749023438,0.65392760422182860668982584684272296726703643798828,0.57071551571993472951049852781579829752445220947266,-3.7119467786830337985293226665817201137542724609375,1.3997303835016099426979963027406483888626098632812,1.7454880800884202685097079665865749120712280273438,-1.1671759504504231053090279601747170090675354003906,-1.3173541839213120940854651053086854517459869384766,2.2144446472875132236879380798200145363807678222656,0.25995506996530137744372268571169115602970123291016,0.4646929809758237328587426873127697035670280456543,-4.0721342623219838330328457232099026441574096679688,0.16943859166733030163776163590227952226996421813965,-1.2572748832575593169735839182976633310317993164062,1.0252162673598188558088395438971929252147674560547,1.0862674451465064162647422563168220221996307373047,-0.50538743507560723866589569297502748668193817138672,-1.9297254965629659917425442472449503839015960693359,-0.22297645717854461255846842959726927801966667175293,2.1668768867846059933413016551639884710311889648438,1.718857940456889110691918176598846912384033203125,-1.11375526524209789158703642897307872772216796875,-0.93810857209816300716909154289169237017631530761719,-1.5861969498150623181231821945402771234512329101562,3.0970443612195386329233315336750820279121398925781,-1.0661729142863949348907226521987468004226684570312,-0.70487063623048562543971229388262145221233367919922,0.24911701433954211437615811064461013302206993103027,0.99143075788824264193976887327153235673904418945312,1.3365679626341719909987659775651991367340087890625,0.14696831011333791328077325033518718555569648742676,0.65880082634597214585880919912597164511680603027344,0.10379107707063052468132724470706307329237461090088,-1.8766813856304032093191835883772000670433044433594,0.13531616726180767384946079801011364907026290893555,0.20597576210893825399139700493833515793085098266602,0.78914722108431778480053253588266670703887939453125,-0.44411668521636449291634107794379815459251403808594,-0.10625863911742222667200508112728130072355270385742,0.1090184219663553749635198641954048071056604385376,-1.2061122319024852878044384851818904280662536621094,0.4865977281974551149623664514365373179316520690918,-1.3268531314207105964442234835587441921234130859375,-0.19700522806227815930668612054432742297649383544922,-0.05148248173412147549177220184901671018451452255249,-0.70807934841488706645407091855304315686225891113281,-2.7439378513851000462864249129779636859893798828125,-0.669200855955320861312429769895970821380615234375,0.27001925815291183408106689967098645865917205810547,1.2071915983500329794253502768697217106819152832031,-0.2611897692217858835128652117418823763728141784668,-2.3027341061345372175139800674514845013618469238281,1.0656437286208975123713571520056575536727905273438,-1.6299142336636995853638154585496522486209869384766,0.13157225130714050864710884525266010314226150512695,-0.026491717959427285578044575231615453958511352539062,-0.51360115500524416987104814324993640184402465820312,0.5799099875210718124662889749743044376373291015625,-0.56587458998761153150525160526740364730358123779297,0.21956066828027034909531778339442098513245582580566,0.32166094928662325447277225975994952023029327392578,0.075023905660295792108271939468977507203817367553711,1.906607254600917400466641993261873722076416015625,-0.045260745459178269856082010846876073628664016723633,-0.033068769779100878891675563409080496057868003845215,0.41815627536392585561486612277803942561149597167969,-0.83237063705509672928428699378855526447296142578125,0.70074266785473993124355729378294199705123901367188,1.5722573723852604210549088747939094901084899902344,0.19098093000040003430761714753316482529044151306152,2.0943721011562930200966547999996691942214965820312,-0.52928709758096836868190848690574057400226593017578,0.13236681399898156397121340432931901887059211730957,-0.57049464851626197070544321832130663096904754638672,-0.85154666399526146580711838396382518112659454345703,0.13549408243614988189840175891731632873415946960449,-1.1524787727417846738831030961591750383377075195312,0.079678022398624676059242233350232709199190139770508,0.53460479518724357550496506519266404211521148681641,-0.72692808056440250119578649901086464524269104003906,-0.0033846317881167163436895162220707788947038352489471,-0.63812019871029668216522168222581967711448669433594,-2.5402861739262356799429198872530832886695861816406,0.13567976732658135197162607710197335109114646911621,0.25155697489271944267130720618297345936298370361328,-0.045055596752751954359172970043800887651741504669189,-1.0293793591395430375712294335244223475456237792969,-2.6829386558680572427704191795783117413520812988281,0.26213659555738516582223951445484999567270278930664,-2.0698828594888394327711012010695412755012512207031,0.16553652839763030590880532599840080365538597106934,-1.79193971904393123395493603311479091644287109375,0.16958876020833144049326790536724729463458061218262,1.1113587167648601994329737863154150545597076416016,-2.1363237301412145718870760902063921093940734863281,-0.40414453454949517130501135397935286164283752441406,-0.44367402079151718741201193552115000784397125244141,-0.18449428803382100783281316580541897565126419067383,-0.15321602065236208933818318200792418792843818664551,-0.0079785334039250491167116763335798168554902076721191,0.17838621255727915571043240561266429722309112548828,3.1300131836747713265367565327323973178863525390625,-1.5758640708012321418607371015241369605064392089844,-0.78872258179201493177856718830298632383346557617188,-0.56070407601983596190819980620290152728557586669922,0.57019332451345705603529268046258948743343353271484,0.36456299101365297055110659130150452256202697753906,1.3827393531009730676117897019139491021633148193359,-1.865977724470258891642515663988888263702392578125,0.20739691708433113936926872611365979537367820739746,0.21098928258967986071326095043332315981388092041016,0.26687719586551378325722794215835165232419967651367,0.55149711910803655978696724559995345771312713623047,2.5414281263652567233179979666601866483688354492188,-1.1447430389913058057516082044458016753196716308594,-0.43605332307532013169648621442320290952920913696289,-0.022404422984998312307070023052801843732595443725586,1.3987940573515136311044670947012491524219512939453,0.85072924340591438152614500722847878932952880859375,1.1276730974521746997396576261962763965129852294922,-0.63541598550890854291139930865028873085975646972656,2.3932965092223090763923210033681243658065795898438,-1.7158995195071338191183940580231137573719024658203,1.7401407813498299681498338031815364956855773925781,-3.1911532235368786913909389113541692495346069335938,-0.25116261869486078417423868813784793019294738769531,-0.49556060365780496557164269688655622303485870361328,0.19757100169626978791725946393853519111871719360352,2.4402610520891561129985802836017683148384094238281,0.72298950627657576628593005807488225400447845458984,0.19539776747698750503090536767558660358190536499023,-0.43884981161711716923790049804665613919496536254883,-1.5331956435725770937494871759554371237754821777344,-1.7487495301687163706816363628604449331760406494141,0.48519998725740293155084259524301160126924514770508,0.20837479145985582373867828209768049418926239013672,0.88523401398111434268400898872641846537590026855469,1.8661874975505161611266657928354106843471527099609,0.18309958002068951743446234559087315574288368225098,0.16279277519604673507558345590950921177864074707031,0.95290411878498237907564316628850065171718597412109,1.036191805949282951360146398656070232391357421875,-1.2143556129029873247304749384056776762008666992188,1.0161821407745188494686772173736244440078735351562,1.7499170765819818118558259811834432184696197509766,-1.9753145432607910336741952050942927598953247070312,-2.1436753832822170728888977464521303772926330566406,-4.5505986907553168663298492901958525180816650390625,-0.82343450007353913289165348032838664948940277099609,0.27866076398298622596172435805783607065677642822266,-1.2474493466829281729246758914086967706680297851562,0.098595254766826137537982788217050256207585334777832,-2.156462660494423033696875791065394878387451171875,-0.15131915374045024069715736914076842367649078369141,-1.4137482582740459324810444741160608828067779541016,-0.047563777915164334730846462662157136946916580200195,1.66597864643288318120539770461618900299072265625,3.481973430768704247384448535740375518798828125,0.54833772880872633237459012889303267002105712890625,-0.94779288148419238435593570102355442941188812255859,-0.54558216936799042162675732470233924686908721923828,-0.48532161244352872708773816157190594822168350219727,-0.041070381249708499959982788141132914461195468902588,0.59679344018218305478740148828364908695220947265625,-0.081507188477664888059948111731500830501317977905273,-1.5633029605337840362011547767906449735164642333984,-3.2071055918703437193073568778345361351966857910156,-0.38511118791329840282955387920083012431859970092773,2.1693005133121974203902482258854433894157409667969,0.30556865913739300610885152309492696076631546020508,-2.5228508787579970729098022275138646364212036132812,-1.9054803107463247346942125659552402794361114501953,0.27755625621325857865784314526536036282777786254883,0.22507130420903564971268906447221525013446807861328,-2.7840138924481205862093702307902276515960693359375,0.030371909555092314880742065952290431596338748931885,1.8050653041180513280750119520234875380992889404297,0.85774064526100746164161137130577117204666137695312,-1.7392897911649760622765370499109849333763122558594,1.7122175884277341939565530992695130407810211181641,-0.73639493704265435169986631080973893404006958007812,-0.73562851427955877614550672660698182880878448486328,1.3341921805434437953152837508241645991802215576172,0.51971726644498195124555195434368215501308441162109,1.3913124583067120187962473210063762962818145751953,1.7582903576484936181145712907891720533370971679688,-0.87367236615160726032058846612926572561264038085938,0.16197740125438278568914540755940834060311317443848,-0.27134111727769638644502947499859146773815155029297,0.44738393105879098454735753875866066664457321166992,0.4731584681313957818638016306067584082484245300293,2.1751044438029412120272354513872414827346801757812,-0.14900126318999970531642418336559785529971122741699,-1.5801925734144699475791639997623860836029052734375,-0.25170038543352479809556143663940019905567169189453,-0.29719540429673124704024189668416511267423629760742,-1.5942592135560269550609291400178335607051849365234,1.2629374967678115293523433138034306466579437255859,0.60108054320164139294746519226464442908763885498047,0.27975717136972866327937481401022523641586303710938,-0.042097833354201294464580485055194003507494926452637,-3.3535739502935464351196515053743496537208557128906,3.5486475769933956136981123563600704073905944824219,1.3323492961576064441686639838735572993755340576172,-1.6042814780574210509200838714605197310447692871094,-0.24528003613022347773053866148984525352716445922852,-1.062345443218458029832618194632232189178466796875,-0.62463951672209883092534710158361122012138366699219,1.5114911903811047988455129598150961101055145263672,-0.053052447111067435603359854212612845003604888916016,0.83651119057586753591237993532558903098106384277344,3.62879114630764121329775662161409854888916015625,-1.4480565745561382318129517443594522774219512939453,-0.76314868599402996274250199348898604512214660644531,-1.2907106148614588825296323193470016121864318847656,0.29926992851533601447400201323034707456827163696289,0.59950122130779803786282400324125774204730987548828,-0.11662009847138363194396504241012735292315483093262,2.7226008232548286613905474951025098562240600585938,-2.3376260591724813409086891624610871076583862304688,-2.8920792398611889773007987969322130084037780761719,-0.092254933775599429202074475142580922693014144897461,1.6189277135437554200336762733059003949165344238281,0.32851223046381511361246907654276583343744277954102,-0.6098124894485703606505921925418078899383544921875,1.023803476764481246163995820097625255584716796875,0.37997671012700229287162301261560060083866119384766,0.22376280785627636338297463680646615102887153625488,-1.1595318222591690648926032736198976635932922363281,-0.95491920643337424579044636629987508058547973632812,-0.022219835688012262026047594076771929394453763961792,-1.1481167998328760671000736692803911864757537841797,-0.33394452232948673708889941735833417624235153198242,-2.218093058350593338445833069272339344024658203125,1.2275281711496195402588682554778642952442169189453,0.18847307123030115905137904519506264477968215942383,-3.1895476874461112792857875319896265864372253417969,0.85767726116812448289294934511417523026466369628906,0.20984680652197437722428219331050058826804161071777,0.2745559649635744281503946240263758227229118347168,-0.64251726672867370826480737378005869686603546142578,1.9503300489223491798185250445385463535785675048828,1.9471218775334071526827983689145185053348541259766,-2.6143597861180287722504544944968074560165405273438,-0.58819658120146423030405458121094852685928344726562,4.2376000474827977271274903614539653062820434570312,-0.42459224770240483470828962708765175193548202514648,-1.9291447126475143036827830655965954065322875976562,2.0705008332827903316797346633393317461013793945312,-0.018475606261994802909098822851774457376450300216675,1.9125304789414798722901878136326558887958526611328,0.29246799907802356610631022704183124005794525146484,0.17744365827795233192532009525166358798742294311523,-0.87618320377334402149216430188971571624279022216797,0.52034461898830297599261029972694814205169677734375,0.22568824041235321931075930024235276505351066589355,-1.6087758137174157369031490816269069910049438476562,0.79512194175567829645956408057827502489089965820312,0.014618819872856569919150615532998926937580108642578,-0.69721742544481413172974271219572983682155609130859,-0.93468414154246814984361435563187114894390106201172,-1.4495446621971916911775224434677511453628540039062,-1.5059608009929126293258150326437316834926605224609,-1.9587584229405172742133345309412106871604919433594,0.031815331060943648211480905274584074504673480987549,2.0571029742762210190676341881044209003448486328125,2.7972151371232354399865016603143885731697082519531,2.074059924346016714480356313288211822509765625,-0.93316771582140622953716047049965709447860717773438,0.093338453847294014509294868275901535525918006896973,-0.90327282024090760348400408474844880402088165283203,-1.0766159239952044490706839496851898729801177978516,0.031794740658513141740026952675179927609860897064209,0.30922896955847184452537135257443878799676895141602,2.9716727137450775764193622308084741234779357910156,-0.083504069055659449483108858203195268288254737854004,-1.9469673831653468987212818319676443934440612792969,-0.051670255423871762345822133966066758148372173309326,-0.56661129644523222648189175743027590215206146240234,-1.2587121234135869585202271991875022649765014648438,1.6918830347094047095168889427441172301769256591797,3.1145507577163384915763799654087051749229431152344,1.5438440909441106807520327492966316640377044677734,0.93601697765973290721319699514424428343772888183594,1.4356744693972069981668937543872743844985961914062,2.207162957716576556776999495923519134521484375,-3.5637710077373578876347437471849843859672546386719,-1.570339660692781080797431059181690216064453125,-3.8693127273618137529354044090723618865013122558594,-1.1120184647580213521678160759620368480682373046875,-2.3312224046717373582282561983447521924972534179688,-3.9108619336948375888596274307928979396820068359375,-0.018267151429368206488890180594353296328336000442505,-3.1412267348004943023909163457574322819709777832031,0.84342070087568399294752907735528424382209777832031,2.8248590721795143743122480373131111264228820800781,1.6592551289926562585463898358284495770931243896484,-1.4939484363726109883430126501480117440223693847656,3.4175822121526406860425595368724316358566284179688,0.15782498152987928241586246258520986884832382202148,0.16483933180622550862537423199682962149381637573242,-0.17538420765563039749324047988920938223600387573242,2.4412311806745976561217048583785071969032287597656,1.9255581928340583797165663781925104558467864990234,0.92309715763529875953707914959522895514965057373047,0.47464911907197387952450640113966073840856552124023,0.84801150485393927969113292419933713972568511962891,1.9115068571228766014513666959828697144985198974609,-0.71437836904929097325833708964637480676174163818359,-0.15360375118980201802898477581038605421781539916992,-5.8076952275154392069111963792238384485244750976562,-0.058563275811979079166214035012671956792473793029785,-2.2609063665662398889821815828327089548110961914062,-1.8758380446111315720258971850853413343429565429688,1.1274062685267358663310233168886043131351470947266,0.75702242068018466003564981292583979666233062744141,0.19670952382275933012500956920121097937226295471191,-2.1841879926957932234188319853274151682853698730469,0.47492975093282058240973242391191888600587844848633,-0.76312181400293643829257916877395473420619964599609,-2.6208901282348704420144258619984611868858337402344,-1.4720692851304131298917354797595180571079254150391,0.76847121411383956246510251730796881020069122314453,-1.3437718447128552679004087622161023318767547607422,-3.5892798506039218509044985694345086812973022460938,0.10093945578832100307131725003273459151387214660645,-0.20444153806441611731514740313286893069744110107422,0.018253383217755696915629570753480948042124509811401,-1.5517266293567448798285113298334181308746337890625,-0.72357330092845029145820490157348103821277618408203,-0.085006916912126528895754518089233897626399993896484,-0.23472324245508094375800567377154948189854621887207,0.55519820134381059340000774682266637682914733886719,-0.21441383310711359388989194485475309193134307861328,-0.62822286777210800678972191235516220331192016601562,0.12303884995756261822030808161798631772398948669434,0.86554722293513708386569760477868840098381042480469,-0.095936554972139168051548097082559252157807350158691,0.2299407050493577631122832372057018801569938659668,0.048035924715435301957100477920903358608484268188477,-0.24476031801637287976802781486185267567634582519531,-1.5274180526421921033630724195973016321659088134766,4.9092313765641240053128058207221329212188720703125,-4.2992139231364436824378572055138647556304931640625,2.0298270878636497371871882933191955089569091796875,1.8213985515863102548905771982390433549880981445312,0.93100911318863588395089436744456179440021514892578,1.0574763868204248851156989985611289739608764648438,-0.35655259452363907701766265745391137897968292236328,-0.21063950905395067980663270645891316235065460205078,-2.5775586117481350534319517464609816670417785644531,0.61822018187257699040060288098175078630447387695312,-0.85033576694687074137846138910390436649322509765625,4.9480233781582949603716770070604979991912841796875,1.842420048984070746200814028270542621612548828125,0.22697847443114940735320317344303475692868232727051,2.9179989772603351916302472091047093272209167480469,0.57409940878782184103812369357910938560962677001953,2.0032277473406780998743670352268964052200317382812,-1.6334776566210860160310858191223815083503723144531,-3.9741640617358497955535767687251791357994079589844,-0.31610304877850031735064817439706530421972274780273,1.1052647325278230905354348578839562833309173583984,-3.2962795229701695731705513026099652051925659179688,0.072240002954145676739017289946787059307098388671875,-0.76757044385148909260152549904887564480304718017578,1.043047060734782149893362657167017459869384765625,0.29139659582181515196097620901127811521291732788086,0.014304274868944867951658928006963833468034863471985,0.017700555404103774509438906648028932977467775344849,0.61731178246198181724935238889884203672409057617188,0.47513202098485723956500237363798078149557113647461,0.17748961014956482484805633248470257967710494995117,0.55951832932322420610660174133954569697380065917969,0.48515870543243966306334868932026438415050506591797,0.28460791815450769970397004726692102849483489990234,0.6040587679980209401264801272191107273101806640625,-1.1307062279585706754403418017318472266197204589844,-2.0660990289828382593384503707056865096092224121094,0.15546838920401026551409984222118509933352470397949,1.9089400751986285165173740097088739275932312011719,-1.4697781012691539803682871934142895042896270751953,1.024640822411175378192638163454830646514892578125,1.4638980842135673743342749730800278484821319580078,0.1652755726836780125754700065954239107668399810791,-0.30081281699444278876498515273851808160543441772461,1.7750014517293926097352141368901357054710388183594,-0.81111351750023330531291776424041017889976501464844,1.5138868672909553403371774038532748818397521972656,0.57016656094690654210666025392129085958003997802734,-0.37839811787852417612754152287379838526248931884766,-0.099367629488990291686256739467353327199816703796387,-2.3515905312535294591214096726616844534873962402344,2.2623079372528653863128056400455534458160400390625,2.1031320125217658478788962383987382054328918457031,-0.37935472695265343157089432679640594869852066040039,0.56942191566182054351941133063519373536109924316406,-1.0022773678013918718932018236955627799034118652344,-0.26145025401417365529255221190396696329116821289062,0.08602938241259984464281984628541977144777774810791,0.09231252684208797465448270713750389404594898223877,-1.5087999530168743067548575709224678575992584228516,-1.9045407818523532039733936471748165786266326904297,0.97357099884826259206249687849776819348335266113281,-1.2989439735424042066114225235651247203350067138672,-2.66916172964872799866498098708689212799072265625,1.4979023889522260493123440028284676373004913330078,2.0132685947920907487684871739475056529045104980469,-1.93070877634063009509191033430397510528564453125,0.26051595094486795778365717524138744920492172241211,-0.41389848749896740454090604544035159051418304443359,-0.61958984019459173442356814121012575924396514892578,0.19439672540268529421503274079441325739026069641113,2.0132652664785530838287286314880475401878356933594,-0.35704688065460182810895162219821941107511520385742,-1.1003980106884567735647806330234743654727935791016,-0.45137397122229483414912465377710759639739990234375,0.43728878613372290651284401974407956004142761230469,-1.0801197963768589538346986955730244517326354980469,1.5071021271619169379363256666692905128002166748047,-1.1580687242416014548496150382561609148979187011719,0.088157687423249531111224541746196337044239044189453,-2.1372382152127737953151154215447604656219482421875,1.3513806555868053127511529964976944029331207275391,-0.15804457732410887027540979943296406418085098266602,0.79333474086825450655169333913363516330718994140625,0.50519915563247719259010182213387452065944671630859,0.0010469829647040082044873177125055008218623697757721,0.34016347520155904016192494054848793894052505493164,-0.80133068740293100784555235804873518645763397216797,0.2938427114412903162765644538012566044926643371582,1.3808882750386319848701077717123553156852722167969,-0.36831986108568171012223047000588849186897277832031,1.3376105531661184322445024008629843592643737792969,-2.8405369002513802811904497502837330102920532226562,0.076266720153137790294550768521730788052082061767578,2.0639626446530972003756687627173960208892822265625,2.2766137422298955428345834661740809679031372070312,0.29028166140326350230793650553096085786819458007812,0.047618621382686951437612776771857170388102531433105,0.046969817077907011215742727472388651221990585327148,-0.50928685728530409537739842562587000429630279541016,0.037812814880866102429379793647967744618654251098633,0.74774103082237830530942801487981341779232025146484,0.16549756042062155336758166868094122037291526794434,0.025859553812631854569081824024578963872045278549194,-1.4171655729750107788333934877300634980201721191406,0.30069356714007022812751301898970268666744232177734,-2.3819899222477380895668375160312280058860778808594,-0.72746644664200499352801898567122407257556915283203,-0.49003286882541124969137058542401064187288284301758,3.0321680958145917905710575723787769675254821777344,0.3932272544380513434880697332118870690464973449707,0.13578126438667981190633327059913426637649536132812,2.4574970329836203219997514679562300443649291992188,0.31344968262331968089640099606185685843229293823242,-0.88004207836841075174305615291814319789409637451172,-0.62040787825418852730052776678348891437053680419922,-0.62724602288546826844850556881283409893512725830078,0.96035000599074094029816706097335554659366607666016,0.59843500939780092107156406200374476611614227294922,1.3716899879436490472528475947910919785499572753906,-0.37347154886738609391727550246287137269973754882812,1.0581974349418670211520066004595719277858734130859,0.041156785543449050934761146436358103528618812561035,1.2723351357829710828184488491388037800788879394531,-0.17760925932348231581769937292847316712141036987305,2.6508396956387012544098524813307449221611022949219,2.6027243496248519960545309004373848438262939453125,-0.16963458260075589545401442137517733499407768249512,-1.5105353359967219617487899085972458124160766601562,2.4928025036215357701507855381350964307785034179688,-0.12879730422797089350872568047634558752179145812988,-0.94550385363538214100742607115535065531730651855469,0.50313684931936453192946601120638661086559295654297,0.080856515566379655313156149532005656510591506958008,3.5162757432153699532761947921244427561759948730469,-0.59942311704814388306772343639750033617019653320312,-1.0018721782532427067025082578766159713268280029297,1.5799312635658910863867276930250227451324462890625,-0.83626413610394279007920204094261862337589263916016,0.79174893086026620903083994562621228396892547607422,-2.0676524922245196336234585032798349857330322265625,-0.10452061901596593207486307619547005742788314819336,-3.3116262394056072970727200299734249711036682128906,0.83664182122179309164522464925539679825305938720703,-1.5890795579937468939846212379052303731441497802734,-2.9679711913589650329470259748632088303565979003906,2.2144524908605469626365902513498440384864807128906,2.3955451238775267164271554065635427832603454589844,-1.2232606309306202074793645806494168937206268310547,1.8843949349423785299961764394538477063179016113281,2.4069915106536776683299194701248779892921447753906,1.6472270380962166225202736313804052770137786865234,0.20790998917856481909005594843620201572775840759277,-0.3696525517994498355456300942023517563939094543457,-1.5853353770064684269414101436268538236618041992188,0.74775458165572217250627318207989446818828582763672,1.1679348793542203566175885498523712158203125,0.22949782778763525015186530708888312801718711853027,0.035877876447016926464428365761705208569765090942383,-0.4554007247707314576246062642894685268402099609375,0.61764727233816196783067198339267633855342864990234,-1.5674623348744258777287541306577622890472412109375,1.5961928883418612379330170369939878582954406738281,3.3824368977705527861132850375724956393241882324219,-0.58817718337317181909185137556050904095172882080078,-1.0662434073717630411692880443297326564788818359375,1.4504145334898053132377526708296500146389007568359,0.11147759029423222332244591825656243599951267242432,1.3882208131895139580080922314664348959922790527344,-2.1179372319465858964804283459670841693878173828125,2.1110424583329314707214052759809419512748718261719,0.72743862828567451561667667192523367702960968017578,-3.0432423941928781196963882393902167677879333496094,-1.838704869535916941458708606660366058349609375,0.97302785768617805484126392912003211677074432373047,3.98177733026211200240140897221863269805908203125,0.68625086779811439452458898813347332179546356201172,-0.74267406567195137778725211319397203624248504638672,5.6171414920555049477002285129856318235397338867188,1.2247211950072387498522630266961641609668731689453,-1.1677599868795223159168017446063458919525146484375,0.40646437100674848164061359057086519896984100341797,0.18147814979552576164500976574345258995890617370605,-0.60815254613538261008187646439182572066783905029297,-2.8918204709401149621328386274399235844612121582031,0.23487769891181767278887093652883777394890785217285,0.93711025045191465032701216841815039515495300292969,-0.87809819133584110506518527472508139908313751220703,-0.028281618533441497259639518802032398525625467300415,1.6006238134485419877250933495815843343734741210938,-1.2872659153658596586922158166998997330665588378906,2.993009135429520739535291795618832111358642578125,0.72084266782646877480544844729593023657798767089844,-0.065869339879168140039489287573815090581774711608887,-2.6181452696307880856352312548551708459854125976562,0.63331522342098300892843099063611589372158050537109,0.25792641611237743237694530762382782995700836181641,-0.016526141613973109600888022896469919942319393157959,3.1427490710399559326049256924306973814964294433594,-3.6924081977386959962927903688978403806686401367188,-0.66064137921112842111170948555809445679187774658203,0.85911533838990461475759730092249810695648193359375,-3.2903507790376611552574104280211031436920166015625,-2.1411691216915982316493227699538692831993103027344,1.38476770089548750775065855123102664947509765625,1.972369624858213654761129873804748058319091796875,4.1987793871625003205849679943639785051345825195312,-1.1798760305929749669928696675924584269523620605469,1.3453520907813538709518752511939965188503265380859,-1.4855807607127788916301369681605137884616851806641,-0.045210526609510394424606971597313531674444675445557,-3.7892065191671764345926476380554959177970886230469,-2.9038096964155410972807658254168927669525146484375,0.043940695955471793798796653618410346098244190216064,-0.17817418612282648338052126746333669871091842651367,1.9073553001214900159965282000484876334667205810547,-4.649661633665925108971350709907710552215576171875,0.83292125651592685553481487659155391156673431396484,2.1827342957050270833008198678726330399513244628906,0.62446693174342160492784614689298905432224273681641,-3.1527890926932049531217217008816078305244445800781,1.6994340356501063116212435488705523312091827392578,0.18144983124014546493896204992779530584812164306641,0.067593846335066154473736332874977961182594299316406,1.1489748625821363248178386129438877105712890625,0.86996573838955482127488494370481930673122406005859,0.77746805350072367701841358211822807788848876953125,0.24091811861331724475832061216351576149463653564453,0.47962339336084136576232594961766153573989868164062,2.4446199048594903224795871210517361760139465332031,-0.0012858620003935714894149899834019379341043531894684,-0.99866213391714719893599294664454646408557891845703,-1.6953050712691495327533175441203638911247253417969,0.048120033377166991639395376978427520953118801116943,3.4893066665273928528279157035285606980323791503906,1.142158102228425065050032571889460086822509765625,0.69480314783513708043471979181049391627311706542969,-2.9033784835458416040410156711004674434661865234375,-0.55526145373830759766065057192463427782058715820312,-0.85861843538001891840139023770461790263652801513672,-1.4895139301568132150777046263101510703563690185547,-3.3600190092903656768896780704380944371223449707031,-3.3502329174593841187856924079824239015579223632812,-1.1881366859904272104131450760178267955780029296875,0.52191513699220715150062233078642748296260833740234,0.56211075104219321296739053650526329874992370605469,-2.37017905208012535922534880228340625762939453125,-0.56063261457542190591141206823522225022315979003906,-0.88410948248853160613691670732805505394935607910156,1.3948648622466626179061677248682826757431030273438,0.15330362003477626675618239460163749754428863525391,-1.0129559647082733153666822545346803963184356689453,-1.0157848111855494188660031795734539628028869628906,-0.44029051157756787793218222759605851024389266967773,1.228081998415301967497725854627788066864013671875,0.93429685474744683659764632466249167919158935546875,-0.17598376587844721807840642213704995810985565185547,-0.072064216291198079922253327822545543313026428222656,0.27283884785410555950946331904560793191194534301758,1.5464432234083784756251134240301325917243957519531,-0.65787726226324116929333740699803456664085388183594,1.2759232694546478459329819088452495634555816650391,2.1952552381134364800630009995074942708015441894531,-0.786810832520234981757312198169529438018798828125,-1.5996417110136218475702207797439768910408020019531,-0.88867605455266873715203246320015750825405120849609,0.72696847904082884106458095629932358860969543457031,0.1117711947109048947757159453431086149066686630249,-0.90831081310077743662390048484667204320430755615234,-0.10922388464744386959992539232189301401376724243164,-1.4477723556689416906095857484615407884120941162109,0.96954633224731945340124639187706634402275085449219,1.8475015200663527092928006823058240115642547607422,-0.20452729837067143425777260290487902238965034484863,-0.041491649195163661512086861193893128074705600738525,0.12838041981545519898411100712110055610537528991699,-0.44654208045806237370456415192165877670049667358398,-1.7411319219016643256026100061717443168163299560547,-0.13961137636090356628493225343845551833510398864746,-1.2650085028549273857834123191423714160919189453125,0.70086355973579417266705604561138898134231567382812,-0.33196640672139615668712053775379899889230728149414,-0.42292903910563484082274499087361618876457214355469,0.32793098498785144823131076918798498809337615966797,-2.165508636173466783247931743972003459930419921875,0.050067257888553082234572855213627917692065238952637,-0.67544985106314603395816220654523931443691253662109,1.7343539774686969057171381791704334318637847900391,0.17043983719323399506073712927900487557053565979004,-0.29966071156272472419956898193049710243940353393555,-1.1381002292159698718876370548969134688377380371094,3.1476047764813470664080341521184891462326049804688,0.84131530256384512433953659638063982129096984863281,0.0069251502135678592864120872718558530323207378387451,2.2976957936346740218880313477711752057075500488281,-1.5507190034298410363788889299030415713787078857422,0.3235197572380183461682179313356755301356315612793,0.30071739873352754113255969059537164866924285888672,-0.51914029631425173683112461731070652604103088378906,-3.1498959237575556713295554800424724817276000976562,0.33166521203706172959968512259365525096654891967773,1.0832059149721198210158945585135370492935180664062,-0.36586346568308630855526075720263179391622543334961,1.2859770529606258104848848233814351260662078857422,4.298118519861038322460444760508835315704345703125,-0.16084944482528229503515149190207011997699737548828,-2.0637526478114462946678031585179269313812255859375,-0.29844046789631983873647413929575122892856597900391,-0.42175225245504754933989488563383929431438446044922,-1.2589032131939714709290001337649300694465637207031,1.4745767977628552181101895257597789168357849121094,1.0030056753284539716730705549707636237144470214844,-2.4947677660107960839752649917500093579292297363281,-0.062340370040881373792096553643204970285296440124512,3.851535765777565956113903666846454143524169921875,-0.96434110475425682817984807115863077342510223388672,-0.32442468327112156112335128455015365034341812133789,-0.14910193797817283822837453044485300779342651367188,-0.55417243317182607320603437983663752675056457519531,1.8248394370368004047122667543590068817138671875,-1.5207769222457896418632117274682968854904174804688,-0.48305194462799960763987883183290250599384307861328,-0.092887148769258284786154433732008328661322593688965,-0.30860130973485822014623636277974583208560943603516,0.41435803019753575382466692644811701029539108276367,-0.54285062666124328512040619898471049964427947998047,1.3217505366596020710545644760713912546634674072266,-0.0261571554817022107475299463885676232166588306427,-0.26839425477575579170874675583036150783300399780273,0.18784931787012407178316664158046478405594825744629,-0.18705786007556765571102630474342731758952140808105,-0.092118959944415268470407909262576140463352203369141,0.50305797054852074978725795517675578594207763671875,-0.048947748384599192028598935166883165948092937469482,0.47446971331770104729486092765000648796558380126953,-0.046313335149254952760600190231343731284141540527344,0.17459232895318546607832388417591573670506477355957,-0.41391401745942124623667268679128028452396392822266,1.3634299122644806256943184052943252027034759521484,-0.65181763942617754192809798041707836091518402099609,-0.22670148710942175651616992126946570351719856262207,-0.053114432890892057659293357119167922064661979675293,0.23846893260610649289965579100680770352482795715332,0.12670305784367996704276038144598715007305145263672,-0.40242312177678107865119727648561820387840270996094,-0.36939932280340692649645006895298138260841369628906,0.36848478631207354228038752808060962706804275512695,0.11623100829999255534374924536678008735179901123047,0.35681872069097642086177302189753390848636627197266,-0.012090169489250925799472824451186170335859060287476,0.43010240661380599869190177741984371095895767211914,0.78188481170918977536388183580129407346248626708984,0.1116247657482301036679928074590861797332763671875,-0.25332372327371760478698092811100650578737258911133,-0.74711926233759384796684344109962694346904754638672,0.30338133486182300435629599633102770894765853881836,0.09428361452906834638820754435073467902839183807373,-0.23556052763953477802161273757519666105508804321289,0.066450234124424467641034652842790819704532623291016,0.63692861443020809542048255025292746722698211669922,-0.15711754178104872514687428974866634234786033630371,0.23485265055527007604929679018823662772774696350098,-0.47731532218639344256061463056539651006460189819336,0.34981151801626619857188416062854230403900146484375,-0.035816789709267986274721096151552046649158000946045,-0.00038934962328743608333397885346016664698254317045212,-0.07521818451834708096903625573759200051426887512207,0.13689923360426337062278889789013192057609558105469,0.73686650700915390377332414573174901306629180908203,-0.069375335505786020484642051542323315516114234924316,0.81625963352363628544594575942028313875198364257812,-0.22393228885980662190569034919462865218520164489746,0.76654889604691656135315724895917810499668121337891,-0.25406166349298514584020836082345340400934219360352,0.11073570631711425471532805886454298160970211029053,-0.14970352509318371470037334347580326721072196960449,0.73926882485675926570678484495147131383419036865234,-0.57465432303960828352984435696271248161792755126953,0.36684876494882828756871617770229931920766830444336,-0.042559674090459083395376893577122245915234088897705,-0.70225989409562961096611388711608015000820159912109,0.92468455510311786671451272923150099813938140869141,0.31881025672681156946097758009273093193769454956055,-0.90247974257284369059561868198215961456298828125,-0.28029346732815746401357159811595920473337173461914,0.10534853066309464442174004261687514372169971466064,0.24716473064706193096817798959818901494145393371582,0.35033568797246067427764160129299852997064590454102,-0.11308628720107428977659225211027660407125949859619,-0.030709341644422415845694374070262711029499769210815,-0.14796711819277461041899357496731681749224662780762,-0.077852094835798357763678723131306469440460205078125,-0.89046293599458148371184051939053460955619812011719,-0.036546965714331122732083656501345103606581687927246,-1.0810186775102021972116972392541356384754180908203,0.19494803126668938664245445124834077432751655578613,0.10798409826262207744651533403157372958958148956299,-0.039357510803613882099938336978084407746791839599609,0.91705844369258882053941306367050856351852416992188,0.788173383943838956611216417513787746429443359375,-0.973584226274766706410446204245090484619140625,0.079785377863846901336231098866846878081560134887695,-0.15569264272852506580946396752551663666963577270508,0.71048600428710972920498534222133457660675048828125,-0.57721255647984992531718262398499064147472381591797,-1.0737454092646043779524234196287579834461212158203,-0.17657542353066468798772348236525431275367736816406,0.15205153314308236800478368877520551905035972595215,0.24234403734740983527018443055567331612110137939453,-1.3034782002004123846461425273446366190910339355469,-0.48853667796159128133837157292873598635196685791016,-0.055753147520198879927288970748122665099799633026123,-0.34914224874809601795178082284110132604837417602539,0.026069554109076378128895257191288692411035299301147,0.62374169622086339526134679545066319406032562255859,0.77362360957059639332555889268405735492706298828125,-1.3301744894985401135301117392373271286487579345703,-0.28459647404729648823007437385967932641506195068359,-0.50008154959151707164011213535559363663196563720703,0.10709994474465553415676311033166712149977684020996,0.095684173680946865703234038846858311444520950317383,0.020286299771009829590040496327674190979450941085815,#hidden->hidden weights
#hidden->output weights
